-0.031719908118247986,0.0004879669868387282,-0.007636085152626038,0.025215106084942818,0.09116090834140778,-0.03380264341831207,-0.1658267378807068,0.06068895384669304,0.05599674582481384,0.05325173959136009,0.053316280245780945,0.08311226963996887,-0.07463180273771286,0.14314347505569458,-0.03171345964074135,-0.10697069764137268,0.08094365149736404,0.11374040693044662,-0.02539203129708767,0.061626266688108444,-0.07559730857610703,-0.0665699914097786,0.026224153116345406,-0.09910906851291656,-0.1165514886379242,-0.036193832755088806,0.04596484825015068,0.09922071546316147,0.059620942920446396,-0.06713389605283737,0.07474098354578018,0.04711693152785301,0.008484152145683765,-0.11393087357282639,0.03954799473285675,-0.05426166206598282,-0.011818282306194305,0.029368074610829353,-0.11997297406196594,0.1780281513929367,0.03962445631623268,-0.05874475836753845,-0.016757721081376076,0.038431938737630844,-0.05036228522658348,-0.010654750280082226,0.08784329146146774,-0.08515065908432007,0.07033223658800125,0.0618220791220665,-0.013376081362366676,0.0641411766409874,-0.17667633295059204,0.05951814725995064,0.14301393926143646,0.02880902960896492,-0.05314590781927109,0.02225421369075775,-0.020762614905834198,-0.013803753070533276,0.021844269707798958,-0.011868856847286224,0.008589629083871841,0.03382293879985809,-0.03499365970492363,0.026280278339982033,0.1577361673116684,-0.14357247948646545,-0.0029659615829586983,0.06569306552410126,0.1446056365966797,0.12077892571687698,0.05489932373166084,0.05353544279932976,-0.07471337169408798,-0.06636478751897812,0.013170060701668262,-0.04024232551455498,0.028647661209106445,-0.014580699615180492,0.01164186093956232,0.020615996792912483,-0.022097937762737274,0.040503036230802536,0.05360066518187523,0.10707647353410721,0.006342300679534674,-0.05005587637424469,0.06351277232170105,-0.029265187680721283,-0.04777480289340019,-0.1087411418557167,0.008110780268907547,0.017812348902225494,0.00640834029763937,-0.05322704464197159,0.015196703374385834,0.06757238507270813,0.041798658668994904,-0.03329278901219368,-0.009272809140384197,0.09248291701078415,-0.03686032071709633,-0.014132929965853691,-0.025711800903081894,-0.1854906529188156,-0.03359966352581978,-0.030455518513917923,-0.07067589461803436,0.07695678621530533,0.06634236872196198,0.006255573593080044,-0.034824516624212265,0.049155231565237045,0.009977084584534168,-0.038283005356788635,-0.07115792483091354,-0.018392734229564667,-0.007841723971068859,-0.05888383463025093,0.08225610852241516,-0.03867864981293678,-0.06235766410827637,-0.024671604856848717,0.03500233590602875,0.11138878017663956,-0.07155176997184753,0.09547552466392517,0.011904222890734673,0.0029410540591925383,-0.064936563372612,0.01844937354326248,-0.017145419493317604,0.044989436864852905,0.02660851739346981,-0.03873344883322716,0.09250374883413315,0.0006935169803909957,-0.04672285541892052,0.015115279704332352,-0.018722370266914368,-0.025631939992308617,-0.1217736154794693,-0.04981875792145729,0.0026117321103811264,-0.10075517743825912,0.0025100470520555973,0.07797511667013168,0.013799693435430527,0.08545814454555511,0.10392516851425171,-0.04082445055246353,0.05645385757088661,0.04305450990796089,0.03123459778726101,0.008190936408936977,0.0060412706807255745,-0.06473987549543381,0.07458432763814926,0.0463845394551754,-0.03489212691783905,-0.01786496490240097,-0.15024377405643463,0.005355585366487503,-0.001138258376158774,0.04516957327723503,-0.04483725130558014,-0.04284515231847763,0.04951592534780502,-0.09032688289880753,0.01905927248299122,0.08770187199115753,-0.02619042433798313,0.05045601353049278,0.1432969719171524,0.03387043625116348,0.03280525282025337,0.023176219314336777,-0.05932425335049629,-0.06688234955072403,0.03069542907178402,-0.0052541447803378105,0.05230173468589783,0.10252280533313751,-0.020326536148786545,0.03570099174976349,0.023261643946170807,0.09580598771572113,-0.08221586048603058,-0.008458792231976986,0.05810606852173805,-0.09038073569536209,0.07702673226594925,0.03388148546218872,0.02099679410457611,0.003700784407556057,0.09476187080144882,0.06646651029586792,0.03211129456758499,-0.03553584963083267,0.013656212948262691,-0.009348908439278603,0.10128351300954819,-0.14035415649414062,-0.0787913054227829,0.004507670644670725,-0.07410839945077896,-0.05376184359192848,0.07907278835773468,-0.004701052326709032,0.2042006552219391,0.02089609205722809,0.07886438071727753,-0.05618978664278984,0.016859818249940872,0.04821117967367172,0.054760076105594635,-0.026832861825823784,-0.007054160814732313,0.06500336527824402,-0.06550993025302887,0.129242941737175,-0.046824950724840164,0.05186644569039345,0.023067357018589973,0.055449891835451126,0.04157591238617897,-0.08174236118793488,0.04824139177799225,-0.011633507907390594,0.06804356724023819,0.07006923109292984,0.018046682700514793,-0.022103052586317062,-0.07817699015140533,-0.04884089156985283,0.04295821115374565,0.18349933624267578,0.0732908695936203,-0.027612974867224693,-0.061086591333150864,-0.09176609665155411,-0.047006141394376755,-0.029299460351467133,-0.00469510443508625,0.00314301042817533,-0.02002567984163761,0.010896393097937107,0.0320410430431366,0.031748197972774506,-0.030570559203624725,0.07722172141075134,0.011155210435390472,-0.015814702957868576,-0.018019823357462883,0.059892818331718445,-0.10306889563798904,-0.0013999870279803872,0.08144387602806091,0.05431666225194931,0.07552485167980194,0.009633244946599007,-0.015188101679086685,-0.00012233748566359282,0.09929651021957397,-0.05310259014368057,0.02752082608640194,-0.025008101016283035,0.08765383064746857,-0.0779050812125206,0.0034243157133460045,0.031084749847650528,-0.016418667510151863,-0.030232088640332222,0.029578952118754387,0.009083232842385769,-0.016268448904156685,-0.025726845487952232,-0.07013598829507828,-0.021837998181581497,-0.0007767364149913192,0.03987833857536316,0.04109666869044304,0.04435497149825096,0.010655205696821213,-0.00895499624311924,-0.018383894115686417,-0.058018092066049576,0.12832866609096527,-0.068207286298275,0.11665211617946625,0.051431845873594284,0.06552695482969284,0.014221115037798882,-0.01881270483136177,0.06629200279712677,-0.03799539804458618,0.03327687084674835,0.0414438433945179,-0.032546088099479675,0.02171013504266739,0.019871149212121964,-0.011972254142165184,-0.03039209358394146,-0.07274539023637772,0.005698095541447401,-0.008718527853488922,-0.1504635214805603,0.05175812542438507,0.040558598935604095,0.07413532584905624,0.029941176995635033,-0.003431350691244006,0.04477441683411598,0.006343341898173094,-0.05389690771698952,0.06621222198009491,0.09394332766532898,0.04707685485482216,0.13020280003547668,0.06336420774459839,-0.03846285492181778,-0.019383708015084267,0.035159703344106674,-0.030003070831298828,0.04104591906070709,-0.015972260385751724,-0.04624025896191597,-0.11864683032035828,0.03385414928197861,-0.04413225129246712,0.0030327225103974342,0.1202918216586113,-0.09013313055038452,-0.022652918472886086,0.01961539313197136,-0.0007365174824371934,0.09920896589756012,-0.03514757379889488,0.03312338516116142,-0.002515575848519802,-0.08600978553295135,-0.008687980473041534,-0.02554134652018547,-0.07575564086437225,-0.014602219685912132,-0.02184387296438217,0.013264945708215237,-0.12685348093509674,0.01857500709593296,-0.029541052877902985,0.003471775446087122,-0.013380540534853935,-0.08929169923067093,-0.01939980499446392,-0.08260853588581085,-0.006681172642856836,0.06430332362651825,0.009698578156530857,0.02522983029484749,0.07738666236400604,0.08483923971652985,-0.04493272304534912,0.032158881425857544,0.048302583396434784,0.05464618653059006,0.01655460149049759,-0.028324896469712257,-0.010877054184675217,-0.009501006454229355,0.05718393251299858,0.0702524334192276,-0.03292035311460495,-0.046656809747219086,0.01064401026815176,0.0011117502581328154,0.08563010394573212,0.016556108370423317,-0.001093149883672595,-0.00019835687999147922,0.06000669300556183,-0.11475363373756409,0.05066847428679466,-0.009251024574041367,-0.06729327887296677,0.01347485464066267,-0.01120884157717228,-0.030490407720208168,0.09560853242874146,0.03072841465473175,-0.0006077548023313284,-0.01234568003565073,-0.04554852470755577,-0.06960361450910568,0.04210761561989784,-0.07988210767507553,0.0039949072524905205,0.028850318863987923,0.046211034059524536,-0.016193555667996407,0.036189112812280655,-0.041721656918525696,-0.02927520126104355,0.05751391872763634,0.0540018267929554,-0.05079961195588112,0.009479394182562828,0.04636600613594055,-0.044527631253004074,-0.11755838990211487,0.037313371896743774,-0.07657282054424286,-0.03608326613903046,0.0026289797388017178,0.02975667268037796,0.03175994008779526,-0.021669592708349228,-0.04044066369533539,0.03641995042562485,-0.04732537269592285,-0.10047494620084763,0.11878261715173721,0.007970869541168213,0.08188018202781677,-0.08656800538301468,-0.021608950570225716,0.024103889241814613,-0.041810568422079086,0.06198476254940033,-0.06992046535015106,0.08682002872228622,0.013857537880539894,-0.006376320496201515,-0.035182252526283264,-0.12707963585853577,0.06991514563560486,0.02982550673186779,-0.1010986790060997,0.1274213194847107,-0.03938450291752815,0.05435137450695038,0.0037934351712465286,0.20162498950958252,-0.002942146733403206,0.027949096634984016,0.051312584429979324,0.03924253210425377,0.03818432241678238,-0.0421597957611084,0.05545492097735405,-0.057816796004772186,0.042533792555332184,-0.14499372243881226,0.0780804306268692,0.08493564277887344,-0.012886960059404373,0.024169771000742912,-0.07990102469921112,0.01878795586526394,-0.07303018122911453,0.11867856234312057,0.3611304461956024,0.045319028198719025,0.06124397739768028,0.06850200891494751,-0.04036133736371994,-0.017466194927692413,-0.014950037002563477,0.039626143872737885,0.009198992513120174,-0.20012138783931732,0.06100841984152794,-0.048162199556827545,0.057459305971860886,0.05958988144993782,0.013930939137935638,-0.09778977185487747,-0.1521504819393158,-0.022968607023358345,0.024287814274430275,-0.0197006743401289,-0.026981547474861145,-0.09509556740522385,0.011996029876172543,-0.0042407759465277195,-0.03252577409148216,-0.02444811537861824,-0.05304350331425667,-0.022434109821915627,0.08733153343200684,-0.025846609845757484,0.1081419289112091,-0.022366151213645935,0.048722442239522934,-0.07625234872102737,0.030322331935167313,-0.0822562575340271,-0.13283801078796387,-0.09170263260602951,0.025879938155412674,-0.05813487619161606,-0.049055393785238266,-0.03265874460339546,-0.02173922024667263,0.03507189825177193,-0.010027896612882614,-0.02395571395754814,0.03897321596741676,0.053751252591609955,0.0339839942753315,-0.049935344606637955,0.046991415321826935,-0.048620954155921936,0.10825885832309723,-0.028010478243231773,-0.12785667181015015,-0.007076891139149666,-0.08764789253473282,0.07281669974327087,0.0321500189602375,0.040058765560388565,-0.0054046716541051865,0.024872804060578346,0.07042073458433151,0.11033274978399277,0.05406687781214714,0.036085911095142365,-0.05189427733421326,-0.13608382642269135,0.0643303170800209,-0.055408790707588196,-0.08335959166288376,-0.012477289885282516,-0.07417962700128555,-0.07314781844615936,0.08667056262493134,-0.11603102833032608,0.1590082049369812,0.01060017105191946,-0.12949226796627045,0.004506895784288645,0.014009262435138226,0.07766688615083694,0.05349353328347206,0.07770442962646484,-0.023256177082657814,-0.007698497734963894,-0.09079647064208984,0.08134892582893372,-0.06901028752326965,0.08340378105640411,-0.032008301466703415,-0.069907046854496,-0.029617367312312126,0.031555045396089554,-0.06937133520841599,-0.0051844180561602116,0.05182952061295509,0.044855497777462006,0.13037803769111633,0.009776763617992401,-0.03369448706507683,-0.0610693022608757,-0.04153741896152496,-0.03201668709516525,-0.002264975104480982,0.010712369345128536,0.002927645342424512,0.0854605957865715,-0.0337919145822525,-0.0830974280834198,-0.01854880154132843,0.029270002618432045,-0.00341216498054564,-0.03658396378159523,-0.042919036000967026,-0.09394653141498566,0.03412408009171486,-0.0009246548870578408,0.04892613738775253,-0.009586085565388203,0.0950341671705246,0.03314904868602753,-0.08178793638944626,-0.0015500641893595457,0.02486116625368595,-0.035848043859004974,0.10005179047584534,0.04427448660135269,0.10208511352539062,-0.048801127821207047,0.06075513735413551,0.018828773871064186,-0.08470208197832108,-0.03218249976634979,-0.08409104496240616,-0.03166447952389717,-0.05746950954198837,0.04328220710158348,0.0314798578619957,-0.008380688726902008,0.024484021589159966,-0.027191484346985817,0.03910939395427704,-0.04540449008345604,0.05121483653783798,-0.04760844632983208,0.0020640664733946323,0.03129470348358154,-0.03464142978191376,-0.08063855767250061,0.0670202448964119,0.05872908607125282,-0.049623046070337296,0.0734616369009018,0.004777067806571722,0.07450846582651138,0.045442987233400345,-0.02527436800301075,0.011965683661401272,0.010454928502440453,-0.014016685076057911,-0.15222077071666718,0.03150379657745361,0.01949617825448513,-0.03796616941690445,-0.06139223650097847,-0.05842055007815361,0.030995476990938187,0.007787900976836681,0.08297242224216461,-0.14026160538196564,-0.10024489462375641,0.004225230310112238,-0.1195673942565918,0.010530131869018078,-0.07580246031284332,-0.034639228135347366,0.022082604467868805,0.017626628279685974,-0.05645061656832695,0.07181616127490997,-0.07857808470726013,0.02824937179684639,0.06425793468952179,-0.050241705030202866,-0.13535679876804352,0.04581144452095032,0.025787781924009323,0.12458136677742004,0.1570325344800949,0.08732956647872925,0.028235608711838722,-0.058192089200019836,0.02073654904961586,-0.01972115784883499,-0.029325999319553375,-0.02722952328622341,0.008104282431304455,-0.00961036141961813,0.02407946065068245,-0.04346253350377083,0.0074051362462341785,-0.09652940928936005,0.05049169063568115,-0.028170455247163773,-0.04873250052332878,0.038088828325271606,0.036660999059677124,-0.006893914192914963,-0.05858387053012848,-0.049798108637332916,-0.01194667723029852,0.11032513529062271,0.02506141923367977,-0.10398861765861511,-0.09772495180368423,0.07166863977909088,0.11751396954059601,-0.022835295647382736,-0.018750827759504318,-0.03489047288894653,0.15472474694252014,0.03721511363983154,-0.08162762969732285,-0.012694427743554115,0.03943363577127457,0.061920713633298874,0.01353541947901249,0.04094580188393593,0.0018746210262179375,0.01706227846443653,-0.09535542130470276,-0.036299414932727814,-0.07125642895698547,0.03792782127857208,-0.053015969693660736,-0.0865219384431839,-0.05282490700483322,0.039908651262521744,-0.06783757358789444,-0.09367959946393967,0.048011068254709244,0.17170321941375732,0.060023169964551926,0.024487625807523727,-0.07138992846012115,0.004775813315063715,-0.03491022437810898,-0.0026756925508379936,0.05645045265555382,0.012931518256664276,-0.07857294380664825,-0.07481259107589722,-0.04205549135804176,0.039208441972732544,-0.09475710242986679,0.025897692888975143,-0.03555391728878021,0.07179012149572372,0.08790730684995651,0.039086535573005676,-0.03775130212306976,-0.012395096942782402,-0.034457698464393616,0.015555186197161674,0.05508783459663391,-0.0036115318071097136,0.018539080396294594,-0.07813379913568497,0.13574694097042084,-0.037960078567266464,-0.02494989149272442,0.006064734887331724,-0.16314521431922913,-0.00798945315182209,0.09921524673700333,-0.057249151170253754,0.018617650493979454,0.054612647742033005,-0.01852433755993843,0.07692048698663712,0.0680360272526741,-0.011345532722771168,0.01731097884476185,-0.011261433362960815,0.01569508947432041,0.04150904715061188,-0.009088059887290001,-0.10807406157255173,-0.006806973367929459,-0.04512535035610199,-0.005176933482289314,-0.016156207770109177,-0.06505052000284195,-0.0743231251835823,0.04836370795965195,-0.03595854341983795,-0.03499211370944977,-0.04228275641798973,-0.023947224020957947,0.008062596432864666,0.0015318781370297074,-0.07457235455513,0.04016095772385597,0.030220801010727882,-0.11062762886285782,-0.06694640964269638
